{"layers":[{"sq_mt":{},"rooms":{},"long":{},"lat":{}},{"0":{"bias":0.21837012273413595,"weights":{"sq_mt":1.210727919814218,"rooms":-1.6384602760872384,"long":-1.2327550918876327,"lat":-0.6108237229065482}},"1":{"bias":-0.16778513717346386,"weights":{"sq_mt":0.2713087877971995,"rooms":-0.8566378481837044,"long":-1.6423261356469763,"lat":-0.36345574324563634}},"2":{"bias":-4.650827355806364,"weights":{"sq_mt":3.078544594261013,"rooms":6.247717654562631,"long":-3.3718261053140473,"lat":0.13023398333747782}},"3":{"bias":0.10088467418910356,"weights":{"sq_mt":-0.012302040921186336,"rooms":-0.7387705816474595,"long":-1.711747238637354,"lat":-0.29179132125836765}},"4":{"bias":0.06301109097169448,"weights":{"sq_mt":14.806817851565038,"rooms":-12.544968408405953,"long":4.35193968903249,"lat":-4.045829507808772}},"5":{"bias":-3.9448532123001274,"weights":{"sq_mt":10.265790071047382,"rooms":-1.8977117875107845,"long":8.794207544767822,"lat":-10.337698270864088}},"6":{"bias":-9.798771236232009,"weights":{"sq_mt":0.06867305720916576,"rooms":-3.660726722741586,"long":13.856744253326546,"lat":3.6541600014941205}},"7":{"bias":-0.13558487762389443,"weights":{"sq_mt":8.224980642354925,"rooms":-0.526376971505759,"long":-2.2144971582789665,"lat":-7.9439445837373635}},"8":{"bias":-0.5956374626761229,"weights":{"sq_mt":1.3438194878205438,"rooms":-1.5925331593627632,"long":-1.5548836187470605,"lat":0.0252796461327552}},"9":{"bias":3.247493194724227,"weights":{"sq_mt":-5.630635076755242,"rooms":4.1117616363114635,"long":8.574792281486499,"lat":-16.354196349251936}},"10":{"bias":0.7409013342554743,"weights":{"sq_mt":-3.1082060080832496,"rooms":-1.704675746550263,"long":0.7170153084283182,"lat":1.5811050549649581}},"11":{"bias":2.1310404341384954,"weights":{"sq_mt":-4.719179262709043,"rooms":-5.185318961748867,"long":-2.8887658637114444,"lat":0.9121338838965883}},"12":{"bias":0.36297466138075046,"weights":{"sq_mt":2.5245223332577122,"rooms":-2.731531569588203,"long":-2.4631772494253807,"lat":0.4837304889789797}},"13":{"bias":0.4048603760085944,"weights":{"sq_mt":1.7331521509289454,"rooms":-2.363238650470169,"long":-2.0032437873433357,"lat":0.37413711119044496}},"14":{"bias":-0.06288678525888075,"weights":{"sq_mt":1.7676667890318072,"rooms":-2.1922334000478227,"long":-1.0923235509792564,"lat":-0.40483644791091694}},"15":{"bias":0.12454287396079487,"weights":{"sq_mt":-2.613724378218417,"rooms":-3.1200676127230076,"long":2.3930234049454864,"lat":-0.0628516117957262}},"16":{"bias":-0.037533976279636054,"weights":{"sq_mt":1.4699043814354904,"rooms":-2.0950401020841602,"long":-1.2424751642260243,"lat":0.031295244626275726}},"17":{"bias":-0.45215687215629913,"weights":{"sq_mt":-0.5199007486095776,"rooms":-0.5096968481015125,"long":0.06881651114703309,"lat":-3.086669040099106}},"18":{"bias":0.2792391231787721,"weights":{"sq_mt":2.935533919856028,"rooms":-3.4308620018801608,"long":-1.6264852453345588,"lat":0.39429999478024064}},"19":{"bias":0.4498019705097981,"weights":{"sq_mt":0.09311237529445614,"rooms":-1.8900817702527153,"long":0.01909043667910999,"lat":-0.7625207494282903}},"20":{"bias":-0.6096521031660599,"weights":{"sq_mt":1.4052329097900196,"rooms":-0.9152073914310634,"long":-0.3369317998475846,"lat":-3.3736809705438118}},"21":{"bias":-0.1482169448812309,"weights":{"sq_mt":-0.5499623509941035,"rooms":-1.1689175665151998,"long":-0.18202124830860775,"lat":-0.6922207644634023}},"22":{"bias":-3.0121709928671954,"weights":{"sq_mt":1.5677898264350478,"rooms":4.083227256668064,"long":-3.6262376798904334,"lat":1.225633619252701}},"23":{"bias":0.4924433941541054,"weights":{"sq_mt":-2.2791669447665286,"rooms":-1.0033977702171863,"long":-1.1781617029492988,"lat":-1.2023942825728675}},"24":{"bias":-0.0690295740998972,"weights":{"sq_mt":0.6189291205133609,"rooms":-1.4305630502313365,"long":-1.256400597170373,"lat":-0.2149864288402122}},"25":{"bias":-0.36712101691815324,"weights":{"sq_mt":1.0165668564590253,"rooms":-1.3633053787807714,"long":-1.7341394539844772,"lat":0.02595433217632214}},"26":{"bias":-0.2681506374988682,"weights":{"sq_mt":-0.008351601237782044,"rooms":-0.5623425187839051,"long":-1.2072274085311092,"lat":-0.6397455674112451}},"27":{"bias":0.4937756567999903,"weights":{"sq_mt":0.8820832051350115,"rooms":-2.228400097648769,"long":-0.5614892163318763,"lat":-0.19741416095231457}},"28":{"bias":1.0279276808906956,"weights":{"sq_mt":-0.5670801455956664,"rooms":0.6131493349059026,"long":-1.2543285460793194,"lat":-2.7613749799754377}},"29":{"bias":-0.23205872011521553,"weights":{"sq_mt":0.7906620196866608,"rooms":-1.5261291514292434,"long":-1.323043307801969,"lat":0.04734444018271666}},"30":{"bias":0.7090341864245507,"weights":{"sq_mt":-1.157824932456368,"rooms":-0.3384073484451515,"long":-1.3717501302302244,"lat":-0.8141651702789424}},"31":{"bias":0.6756693835455648,"weights":{"sq_mt":-1.9594758040340767,"rooms":-0.6206519117354583,"long":-1.570972493446489,"lat":-0.24892787143554368}},"32":{"bias":0.6842139755571628,"weights":{"sq_mt":2.484149195315843,"rooms":-2.68362720925618,"long":-2.522021166605715,"lat":0.2183076800732083}},"33":{"bias":0.3247405547879542,"weights":{"sq_mt":2.083904354328317,"rooms":-0.28080753783369633,"long":-1.6917445103899944,"lat":-4.346446550053862}},"34":{"bias":-3.976842207975972,"weights":{"sq_mt":2.380331293543561,"rooms":11.552365453498345,"long":-3.295756936138085,"lat":-13.965298875337012}},"35":{"bias":0.36039835066894343,"weights":{"sq_mt":0.5618750400214779,"rooms":-1.4947822041198604,"long":0.041018390698187406,"lat":-1.8437747759125422}},"36":{"bias":0.2271190893100358,"weights":{"sq_mt":0.8882298477613155,"rooms":-1.7298974088647876,"long":-1.1359653939423393,"lat":-0.28412504547175454}},"37":{"bias":0.6484268069925534,"weights":{"sq_mt":0.24985093677234052,"rooms":-0.6137528880706697,"long":-1.2355514976264605,"lat":-1.545540156027978}},"38":{"bias":-0.21839443729678454,"weights":{"sq_mt":0.5606694319529002,"rooms":-2.3157765812632936,"long":0.9673463136182786,"lat":-1.846339046821865}},"39":{"bias":-0.38648747433580605,"weights":{"sq_mt":0.2162119008675269,"rooms":0.070512696418824,"long":-2.34449630311565,"lat":-0.5237243602532163}}},{"0":{"bias":-0.7600239986597694,"weights":{"0":-0.38012455655912397,"1":-0.5305464061590601,"2":-0.19042300256297856,"3":-0.2190204180610921,"4":-0.8574006554049184,"5":-1.1455785125443778,"6":0.910074992427552,"7":-0.16112413821571525,"8":-0.33392854465535915,"9":0.144501154643133,"10":-0.15922973391471928,"11":0.3941810530669394,"12":-0.3576349342437253,"13":-0.31473499577626163,"14":-0.2746890655527315,"15":-0.1589790088453826,"16":-0.09808766333925258,"17":-0.17415928468085431,"18":-0.17734962731202591,"19":-0.18035553425787326,"20":-0.3030324757856749,"21":-0.41066434781033334,"22":-0.3593385027948435,"23":-0.33156579449002394,"24":-0.27377611571039717,"25":-0.5254740243352002,"26":-0.32263806812959217,"27":-0.3050524494381623,"28":-0.41771395531850547,"29":-0.23872318782743995,"30":-0.4268339821169291,"31":-0.2910547191351988,"32":-0.5061065757693181,"33":-0.43273303511972744,"34":0.25411334547965514,"35":-0.32607514164175705,"36":-0.46107920676408987,"37":-0.3788999770709744,"38":-0.23983187500728229,"39":-0.5077383911415039}},"1":{"bias":-0.6218427017606554,"weights":{"0":-0.3048511598465761,"1":-0.10546918000932173,"2":-0.3398870090321721,"3":-0.42587525502012624,"4":-0.4430338635477321,"5":-0.4686079011973815,"6":0.3810920453665611,"7":-0.19219817068646813,"8":-0.4112958399010681,"9":-0.003768961268206126,"10":-0.3076937184636606,"11":-0.15285385796434248,"12":-0.02983223529018709,"13":-0.018884856441452626,"14":-0.08827502749806657,"15":-0.1701276580092696,"16":-0.2581237931558803,"17":-0.4001978708574918,"18":-0.26509023261212056,"19":-0.24126598897673654,"20":-0.36558946772206985,"21":-0.053436184274532256,"22":-0.32859464338342764,"23":-0.13319461977647448,"24":-0.39110699678727445,"25":-0.2385957784380967,"26":-0.463983673599686,"27":-0.17945548835893063,"28":-0.36579394424990397,"29":-0.3970237194186125,"30":-0.1886296195607825,"31":-0.2544128279114564,"32":-0.36762411468903333,"33":-0.030040852861792613,"34":-0.12855769495925665,"35":-0.44649226518806234,"36":-0.4120164748557877,"37":-0.2717474002619418,"38":-0.3301077705617244,"39":-0.18162196845051234}},"2":{"bias":-0.6157580585858703,"weights":{"0":-0.2187098656294047,"1":-0.5030608978240204,"2":-0.5654573049724083,"3":-0.2789786857235568,"4":-1.0547711192777214,"5":-0.8669343064433729,"6":0.41780493585204026,"7":-0.13844150758965904,"8":-0.49965135270429484,"9":0.3842946597909322,"10":-0.3241132438091811,"11":0.4614858324772531,"12":-0.2861459899572502,"13":-0.18978245921132356,"14":-0.5298606272806886,"15":-0.20102494787264585,"16":-0.42400582952458127,"17":-0.16769577726006787,"18":-0.4888562043546992,"19":-0.5660852131563456,"20":-0.41243651815079474,"21":-0.15473010925453634,"22":-0.3156136543102685,"23":-0.08833666998126831,"24":-0.14704279762302733,"25":-0.31814169510190243,"26":-0.38729521943820583,"27":-0.4133168800201842,"28":-0.12380253254119292,"29":-0.4232121700113883,"30":-0.14827959183525874,"31":-0.3016363698684413,"32":-0.2726080840387589,"33":-0.3407667275458182,"34":0.058467745155906255,"35":-0.17091576116287094,"36":-0.38442626360944343,"37":-0.1425712566688244,"38":-0.17739985189592367,"39":-0.5163750190280447}},"3":{"bias":-0.7824766553947387,"weights":{"0":-0.29081619068769343,"1":-0.278972478689545,"2":-0.3773669150896076,"3":-0.2662844630662162,"4":-0.9791392814264855,"5":-0.2808730618517389,"6":0.3540162919675707,"7":0.12653480562580044,"8":-0.61419215257032,"9":0.5107819913556276,"10":-0.2332746235089253,"11":-0.004770110737874279,"12":-0.5130642526725667,"13":-0.4630173140762331,"14":-0.2598970988769779,"15":-0.34605270136167654,"16":-0.2359798410072503,"17":-0.18822963561053024,"18":-0.24784087954090456,"19":-0.25102580004449776,"20":0.016853737500069254,"21":-0.12981663667648197,"22":-0.47803404686367024,"23":-0.22676490071164435,"24":-0.3275727831650724,"25":-0.4683090415290085,"26":-0.2864180535696342,"27":-0.5924816967192568,"28":-0.18007742643997202,"29":-0.19698616393086754,"30":-0.33177095097558434,"31":-0.2756854119860531,"32":-0.5039990791477794,"33":-0.11531862781362347,"34":0.3821784171097979,"35":-0.4114757376509862,"36":-0.12750989510048297,"37":-0.19194789696977488,"38":-0.13317871737195763,"39":-0.2980917372375083}},"4":{"bias":-0.8577060375986238,"weights":{"0":-0.5898172915308468,"1":-0.20191194241671423,"2":-0.4519636324320243,"3":-0.4197631925904778,"4":0.30973793104156744,"5":0.19554003854549898,"6":-1.4374174086479516,"7":-0.6110042012999239,"8":-0.32663273883857386,"9":-0.7564494935011199,"10":-0.23794365821375793,"11":-0.7569566261726676,"12":-0.3919083129464375,"13":-0.5149778402315114,"14":-0.5778645791722179,"15":-0.4352180051209237,"16":-0.32865968872752643,"17":-0.24467230528359143,"18":-0.4192666377591729,"19":-0.2751227240921441,"20":-0.1781554415564809,"21":-0.18110793709201442,"22":-0.399267552915959,"23":-0.30156168419823165,"24":-0.49079018447891337,"25":-0.4398656080570968,"26":-0.37053990129615894,"27":-0.44484153081245814,"28":-0.04654568009843288,"29":-0.4467298375915953,"30":-0.11894581619087678,"31":-0.29577891932668604,"32":-0.6964947757319521,"33":-0.43519970551310466,"34":-0.2198235792492537,"35":-0.48451575062807606,"36":-0.4711752320972758,"37":-0.2423514749474762,"38":-0.09474091536850344,"39":-0.4568049271137432}},"5":{"bias":-0.71003812151941,"weights":{"0":-0.43593481962631786,"1":-0.12741572022312325,"2":-0.4131637855138593,"3":-0.06591543396868599,"4":-0.8992158977265852,"5":-1.2541868271137577,"6":0.6492232555151811,"7":-0.23394397711284112,"8":-0.18066276397638564,"9":0.12091937817746974,"10":-0.11575841118223401,"11":0.695821100521656,"12":-0.44357021551926495,"13":-0.3055968832461362,"14":-0.2893044974719655,"15":-0.010407819279759109,"16":-0.3794244237859781,"17":-0.29942450627237954,"18":-0.20271960832924887,"19":-0.36936347838130074,"20":-0.1890186365279358,"21":-0.26525818046230026,"22":-0.49649274170973645,"23":-0.013765376717582255,"24":-0.3713584105171447,"25":-0.4707201624055689,"26":-0.499444594496618,"27":-0.3548324209305678,"28":-0.16250158910741969,"29":-0.469336033902822,"30":-0.3121067158615569,"31":-0.07122732585087098,"32":-0.14392093589924684,"33":-0.31971599264253,"34":0.1357920522151363,"35":-0.4102554745194768,"36":-0.41880066919590664,"37":-0.41601475134053856,"38":-0.29016963601827184,"39":-0.4257405698045905}},"6":{"bias":-0.616706550916455,"weights":{"0":-0.5757668204026625,"1":-0.5500820788111186,"2":-0.27482132261844977,"3":-0.6136693031882556,"4":-1.1922641809321282,"5":-2.2501098643076274,"6":1.4507724962793394,"7":-0.28274019729217414,"8":-0.2565919619214854,"9":0.4879069225936116,"10":-0.39483963581246884,"11":0.24217204426955188,"12":-0.4588002889724047,"13":-0.4309863223556137,"14":-0.3312723603087911,"15":-0.37179047792514647,"16":-0.22675105521180924,"17":-0.2478945101949815,"18":-0.44153531721378364,"19":-0.4019571509616042,"20":-0.33624000037485324,"21":-0.3362586338443554,"22":0.08872087952919373,"23":-0.27139172676527035,"24":-0.47316437570267394,"25":-0.1600044039126436,"26":-0.3802976137366973,"27":-0.5443837885703503,"28":-0.8529947717183864,"29":-0.29524107981385006,"30":-0.5422774438868275,"31":-0.6084539797205026,"32":-0.6573540773227328,"33":-0.6525123922018107,"34":0.07379330681800737,"35":-0.6430692871681111,"36":-0.34087488940190563,"37":-0.6416003324540457,"38":-0.652680011223937,"39":-0.3065541593878917}},"7":{"bias":-1.8494183281849454,"weights":{"0":-0.47740995793542124,"1":-0.4837792579410585,"2":-0.6667312513860277,"3":-0.1286958023402662,"4":-0.6586630105499824,"5":-0.5497281363259751,"6":-0.6562689548889155,"7":5.336976399496513,"8":-0.9578436047195229,"9":3.5719716890395685,"10":-0.06752000761030237,"11":6.089794481685079,"12":-1.4068482581965975,"13":-1.2414737977964463,"14":-0.8553031758551072,"15":1.6903854499002555,"16":-0.7887848259591186,"17":1.2394197520444934,"18":-1.5958071376057255,"19":-0.46662615808337793,"20":1.4852289127487235,"21":0.10148725825712007,"22":-1.0425644555318354,"23":1.6524208098931477,"24":-0.4381564081572809,"25":-0.9072390727574327,"26":-0.7201016331144,"27":-0.8240217948138296,"28":0.5511242282815733,"29":-0.8692980280296069,"30":0.4010878608564231,"31":0.9684481076090644,"32":-1.3462283032528637,"33":2.29302614278253,"34":-4.20599009462332,"35":-0.22594560219450663,"36":-0.7732524552301464,"37":-0.1386042609397886,"38":0.09697715605526605,"39":-0.6949279146133408}},"8":{"bias":-0.6335338973330134,"weights":{"0":-0.11716790797074068,"1":-0.32403053646238567,"2":-0.1961682909347887,"3":-0.21526205270606646,"4":-0.7273904104955324,"5":-0.04860639656877784,"6":0.4633883423467605,"7":-0.1397063111595705,"8":-0.19474226531497446,"9":0.26872679707669367,"10":-0.3168628156233437,"11":-0.1730184122952861,"12":-0.36557230808487945,"13":-0.1601570868028707,"14":-0.37624850307631164,"15":-0.6222083504426527,"16":-0.16908975685547942,"17":-0.26481472223365826,"18":-0.4076651624331547,"19":-0.5011664333893092,"20":-0.21184688792480452,"21":-0.3212678133227505,"22":-0.5865787548734274,"23":-0.07821061793712858,"24":-0.2265082786526668,"25":-0.19286564512462334,"26":-0.4705345705254976,"27":-0.3084348020174249,"28":-0.1626875576063201,"29":-0.4809689185674688,"30":-0.17056130884942586,"31":-0.12660740924418745,"32":-0.1180406739097561,"33":-0.4044014513235593,"34":0.36215120777065174,"35":-0.2850646997079,"36":-0.32766015476877375,"37":-0.1603389509258749,"38":-0.16180527560238617,"39":-0.48830244065443273}},"9":{"bias":-0.7192060528186551,"weights":{"0":-0.3506397515256861,"1":-0.4838863647807735,"2":-0.7312676503951498,"3":-0.5196835952857906,"4":-0.908595250481917,"5":-1.6066414157574604,"6":1.8697372983450196,"7":0.09548215156682444,"8":-0.5009590046875524,"9":0.20398726770924164,"10":-0.23829684045649085,"11":-0.2233480741899374,"12":-0.342724522198917,"13":-0.6732043480599186,"14":-0.21183017250741212,"15":0.04752394061574409,"16":-0.425848108139071,"17":-0.07054816045447627,"18":-0.5358078212491788,"19":-0.23826165940719815,"20":-0.39610963436732033,"21":-0.14817099476306342,"22":-0.5356321656820107,"23":-0.2971738022939508,"24":-0.5891200203523747,"25":-0.3009135176446602,"26":-0.569843205589496,"27":-0.32083159227192126,"28":-0.5454540658708766,"29":-0.3318866015005071,"30":-0.6363196552493235,"31":-0.35716469506598486,"32":-0.6227682917260788,"33":-0.3928025055022713,"34":-0.3124531947848504,"35":-0.21508284988950396,"36":-0.5698327029583611,"37":-0.3672096123109196,"38":-0.12436020708041323,"39":-0.49394054288862116}},"10":{"bias":-0.5561373358453978,"weights":{"0":-0.36356748247005116,"1":-0.5289271668095876,"2":-0.33578213997202455,"3":-0.2859572106202707,"4":-0.022743098739938523,"5":-0.2809673454169834,"6":0.35972984555480525,"7":-0.14509673904677753,"8":-0.2232350137504185,"9":-0.399958156800455,"10":-0.049457794245161425,"11":-0.0341157248247305,"12":-0.153341513388762,"13":-0.15248741308074065,"14":-0.11669384199474694,"15":-0.5141288619387063,"16":-0.18036579931472121,"17":-0.08106875285076713,"18":-0.16913432828501426,"19":-0.18538134384443497,"20":-0.3524833521647131,"21":-0.19453380340138413,"22":-0.3538470284153484,"23":-0.13457860933138763,"24":-0.31972895971204374,"25":-0.4267471413847872,"26":-0.5355458800042057,"27":-0.23091549387319393,"28":-0.31673514387258567,"29":-0.10681801969669164,"30":-0.4111294819846512,"31":-0.2752028744063452,"32":-0.18588770420928055,"33":-0.06383288516580547,"34":0.18781187098219096,"35":-0.12460106314275636,"36":-0.30698885405015125,"37":-0.3546024378632362,"38":-0.1116486114535968,"39":-0.5541482706108186}},"11":{"bias":-0.690650125592574,"weights":{"0":-0.052231135291975664,"1":-0.12125711866598184,"2":-0.19529385790071624,"3":-0.2144915346842134,"4":-0.0755524858398739,"5":-0.11607015252357879,"6":0.1418213023550971,"7":-0.28454392418479535,"8":-0.47932705020168254,"9":-0.3290817794000138,"10":-0.29139444056677094,"11":-0.14328188289610413,"12":-0.39300303481639776,"13":-0.3722434077625552,"14":-0.14382363840921622,"15":-0.1928059814287867,"16":-0.09743248878554904,"17":-0.2666056862842272,"18":-0.06819921143686407,"19":-0.18539800479676102,"20":-0.03972954538677547,"21":-0.08033168265840174,"22":-0.3019068318857264,"23":-0.06470059534712526,"24":-0.35876540152491987,"25":-0.41396110039980266,"26":-0.5355456829390419,"27":-0.2749226640781282,"28":-0.4189800737102543,"29":-0.3642929890123435,"30":-0.12861473439114007,"31":-0.3969567660150084,"32":-0.432039530310917,"33":-0.07069640276781212,"34":-0.047959055223279826,"35":-0.3941764567792451,"36":-0.40424829187850453,"37":-0.17867466296913154,"38":-0.21156789152659222,"39":-0.3042528058499904}},"12":{"bias":-0.43583599862434874,"weights":{"0":-0.21977463684949128,"1":-0.4750453479779863,"2":-0.18878292418560094,"3":-0.3425674139210948,"4":-0.8017774595324094,"5":-0.18763997452577777,"6":0.8377383747222726,"7":-0.03381996209288043,"8":-0.44846636393011363,"9":0.11897704263030107,"10":-0.3658817145604837,"11":0.4265689998216413,"12":-0.10736505307213003,"13":-0.20517492741435064,"14":-0.2497748533192683,"15":-0.5149339784208157,"16":-0.14300796915345818,"17":-0.2693636422558942,"18":-0.10125704189507174,"19":-0.5354234201361515,"20":-0.035994857694806315,"21":-0.4553453868879297,"22":-0.4951013341891269,"23":-0.3661945968557295,"24":-0.2958188673842884,"25":-0.2693716755016315,"26":-0.22753863067299532,"27":-0.2155983872637832,"28":-0.2053548033427007,"29":-0.13150009786033487,"30":-0.08385458612675117,"31":-0.2085740769771572,"32":-0.2703866454359217,"33":-0.17644265848050003,"34":0.4488213849442019,"35":-0.3879132172545721,"36":-0.23450974288753973,"37":-0.34500121240218345,"38":-0.5203838304880622,"39":-0.5860940280385318}},"13":{"bias":-0.9992289390317987,"weights":{"0":-0.42115789603868703,"1":-0.5215039363107783,"2":0.6143804121282839,"3":-0.6427603660863589,"4":-1.1921012952962184,"5":-2.8255224809899855,"6":1.0749401644376353,"7":0.04160533884343669,"8":-0.1793574638943941,"9":0.4160458017101202,"10":-0.8877549770417035,"11":0.2432947928265995,"12":-0.28366403001524304,"13":-0.6181275362502722,"14":-0.44653649137089635,"15":-0.5257253446798331,"16":-0.3075287115313249,"17":-0.41051433681427224,"18":-0.418166623878629,"19":-0.9709677600119867,"20":-0.2124278749255982,"21":-0.7761900039361332,"22":0.3708327199664668,"23":-0.5742219879838395,"24":-0.5606796904093732,"25":-0.11723203381412735,"26":-0.23545208214686997,"27":-0.7315917634140773,"28":-0.6786436995084115,"29":-0.3557562884246171,"30":-0.6627853882243907,"31":-0.834359200918568,"32":-0.44557773905664294,"33":-0.5752093239483635,"34":0.7378260772435786,"35":-0.7534973685282346,"36":-0.38071669666585384,"37":-0.7887832949169146,"38":-0.7945297575570126,"39":0.10356756509039139}},"14":{"bias":-0.8526575470122746,"weights":{"0":-0.405806854052507,"1":-0.2752998706091372,"2":-0.5208337190290662,"3":-0.11239891246301643,"4":0.20562817961271979,"5":0.239702937170409,"6":-0.9186442152596194,"7":-0.3385355200815088,"8":-0.519416257383728,"9":-0.6138233980746517,"10":-0.28869828637162487,"11":-0.41679933020018045,"12":-0.5331536647928588,"13":-0.3498708984932868,"14":-0.16748610256409047,"15":-0.10606384185182496,"16":-0.4753090995165158,"17":-0.06907661921676424,"18":-0.5566271197421797,"19":-0.42251227134303526,"20":-0.267570359834754,"21":-0.14149429307446276,"22":-0.42588388866803906,"23":-0.19891982481850162,"24":-0.4231585086469998,"25":-0.21311299414407767,"26":-0.3992615073740127,"27":-0.38008015182437604,"28":-0.3443600439518826,"29":-0.4020843981557169,"30":-0.20885216431525244,"31":-0.10984252003612335,"32":-0.2810659446745391,"33":-0.4177011211660342,"34":-0.3283057300290499,"35":-0.24563513071398704,"36":-0.23983575359177337,"37":-0.35483991033121554,"38":-0.38111941527123344,"39":-0.2672748592702402}},"15":{"bias":-0.15306963776089597,"weights":{"0":-1.4885395336229812,"1":-1.2002714311993479,"2":5.265928505510751,"3":-1.5284647857271556,"4":-0.847904353233291,"5":0.5042421689223223,"6":8.319210174254064,"7":-2.6608043479555334,"8":-0.9582736840144015,"9":-2.2090912736995185,"10":-0.605541059856298,"11":1.9748100552310146,"12":-2.214609501094966,"13":-1.7078705062507873,"14":-1.1740870146245015,"15":1.6382101493031114,"16":-1.1902161316027051,"17":-0.8963009257791734,"18":-1.7568014019952587,"19":-0.6393581701780503,"20":-0.8027861317632058,"21":-0.5007359934675966,"22":3.0158770473952288,"23":-0.637675154798079,"24":-1.1451729941886395,"25":-1.0705856634790574,"26":-1.0211711667280905,"27":-0.9240992247329743,"28":-2.7910881226021584,"29":-0.9394556729179642,"30":-1.8042552666342224,"31":-1.2889274934904635,"32":-2.500609690217058,"33":-2.0797124195834775,"34":4.735878773082869,"35":-1.0544360646608832,"36":-1.2103120223648696,"37":-2.0711034128215813,"38":0.3285913826125646,"39":-0.8734380991711543}},"16":{"bias":-0.9314355942949314,"weights":{"0":-0.21714898067148225,"1":-0.28792879233617363,"2":-0.558975179803743,"3":-0.39940021529784403,"4":0.28365481934842385,"5":0.20928088954696966,"6":-0.9684051327180978,"7":-0.32970176731472717,"8":-0.3920977515928876,"9":-0.47401374389987966,"10":-0.32768525333686893,"11":-0.3465892491908671,"12":-0.34385748097393837,"13":-0.2721104714024477,"14":-0.23758080572063847,"15":-0.17422326082196,"16":-0.1729535032135415,"17":-0.19521698848532704,"18":-0.612955084421132,"19":-0.0964846836803274,"20":-0.19457741866306344,"21":-0.26566935343293957,"22":-0.541874267917187,"23":-0.36510572760695403,"24":-0.21001760110148954,"25":-0.43981415093985093,"26":-0.4098387739358621,"27":-0.3335721143566933,"28":-0.2944662520117921,"29":-0.3446603446930035,"30":-0.049008800398191894,"31":-0.0700619321328308,"32":-0.6445277900352425,"33":-0.42988105780406577,"34":-0.06338693424000744,"35":-0.07646280551813156,"36":-0.30377400828736395,"37":-0.4181590547425293,"38":-0.15383007971471813,"39":-0.4988074527717666}},"17":{"bias":-0.839011351573353,"weights":{"0":-0.25276348784316427,"1":-0.34006621853493574,"2":-0.6586606163176575,"3":-0.3042448170046714,"4":0.13032251004171158,"5":-0.06180916272585257,"6":-0.46336759104998676,"7":-0.5416079396137962,"8":-0.46027792699044395,"9":-0.5807961710348427,"10":-0.16037809008351633,"11":-0.35122002158511634,"12":-0.28978161442624856,"13":-0.4024904161386709,"14":-0.15690283290127474,"15":-0.07533830541119557,"16":-0.25094148628741003,"17":-0.2614719294606467,"18":-0.2298167882188858,"19":-0.11428416841765252,"20":-0.24706713447777212,"21":-0.1729053282604194,"22":-0.3707733583800381,"23":-0.17933104553742765,"24":-0.048466612579347534,"25":-0.48494999904513,"26":-0.19784717325740364,"27":-0.07594053025384573,"28":-0.35125698211363277,"29":-0.18671133397778503,"30":-0.1295528699722495,"31":-0.15754590531548993,"32":-0.3331186692038039,"33":-0.1990288581607308,"34":-0.13723422824468146,"35":-0.3042711095068493,"36":-0.32455925060314333,"37":-0.3803275034919339,"38":-0.30546938098271564,"39":-0.27658019402148937}},"18":{"bias":-0.7997690702482478,"weights":{"0":-0.110001865073718,"1":-0.38754167308134374,"2":-0.4409088113820721,"3":-0.409310805653151,"4":-0.90996071895689,"5":-0.16912780269845495,"6":0.32665242676276346,"7":0.1092396934802948,"8":-0.40126263697287373,"9":0.3590672186513494,"10":-0.35042588157312843,"11":-0.22797430869927982,"12":-0.3350245663781338,"13":-0.37280163171903413,"14":-0.256850465654357,"15":-0.12578309642209054,"16":-0.27012602668308067,"17":0.0776548603042075,"18":-0.3784596067723646,"19":-0.48881200756919435,"20":-0.09325899120255789,"21":-0.29166227898267555,"22":-0.3065710416851501,"23":-0.19534785052364462,"24":-0.3327180147292019,"25":-0.4705879934451146,"26":-0.48588715838352886,"27":-0.2904402647234575,"28":-0.22115758326900267,"29":-0.5190398519482023,"30":-0.2160611232579266,"31":-0.18447036743886774,"32":-0.45492906257597976,"33":0.020996951650977546,"34":0.09017307208383882,"35":-0.10157826002521858,"36":-0.3473196868767802,"37":-0.29156449026396264,"38":-0.0602647018024025,"39":-0.4837788912387418}},"19":{"bias":-0.7348755455013317,"weights":{"0":-0.18758061032703838,"1":-0.33172050443744755,"2":-0.42555565537885837,"3":-0.18049101269848758,"4":-0.7036800070187443,"5":-0.6356562758809785,"6":0.41282121730882165,"7":0.010250783339302098,"8":-0.4464458947628573,"9":0.27678065737139773,"10":-0.38778593451356713,"11":0.043052246803052724,"12":-0.1784791640469484,"13":-0.33043203332254095,"14":-0.13526613961172537,"15":-0.22739783946321127,"16":-0.0793484529098595,"17":-0.13119375876861297,"18":-0.20320623586566094,"19":-0.34092290852367224,"20":-0.12395624845338857,"21":-0.11547996826747269,"22":-0.19484115209031733,"23":-0.34549964167982317,"24":-0.15197687227760204,"25":-0.4140265566394932,"26":-0.3944539370597692,"27":-0.3471601675865158,"28":-0.3876496584583609,"29":-0.17148885594638077,"30":-0.20050232769854015,"31":-0.06999660936508367,"32":-0.13142649515875118,"33":-0.26730627650179595,"34":0.2503620739249758,"35":-0.38207058139830685,"36":-0.3513260123667756,"37":-0.2500758982172682,"38":-0.2557116434124589,"39":-0.43400726638439485}},"20":{"bias":-0.6331820783830938,"weights":{"0":-0.11229375594323909,"1":-0.33625317419915807,"2":-0.4020831240301508,"3":-0.15235794852273596,"4":0.14485055409778183,"5":-0.13984804482540866,"6":0.044567932023086294,"7":-0.45117691138481464,"8":-0.35560649604031047,"9":-0.7081526129672607,"10":0.06448913576480575,"11":-0.12478438662369203,"12":-0.3167314069695106,"13":-0.3264685840416818,"14":-0.2844432127684525,"15":-0.1495870929587718,"16":-0.18193371185599488,"17":-0.38899273776795046,"18":-0.11279754670668318,"19":-0.12176352146344359,"20":-0.20866696962936765,"21":-0.3473504453193623,"22":-0.6665902942472812,"23":-0.03220210794936448,"24":-0.29603599819680376,"25":-0.39869966355734787,"26":-0.3675542833634094,"27":-0.3368696621586121,"28":-0.10058288114492492,"29":-0.20654759914883483,"30":-0.38172027668837527,"31":0.007492697448672881,"32":-0.4302480918975988,"33":-0.14205996373759747,"34":-0.023179749755864395,"35":-0.12038511186613335,"36":-0.39109680889833676,"37":-0.2663826476267228,"38":-0.31896924883234584,"39":-0.499475704964254}},"21":{"bias":-1.1447293939718786,"weights":{"0":-0.38909573581503004,"1":-0.47479653132871547,"2":-0.25562326582402983,"3":-0.33907623118227026,"4":1.467615302745769,"5":0.5803000368928282,"6":-1.8641792161737656,"7":-0.7579057576429524,"8":-0.5504723567719033,"9":0.012649862199422563,"10":-0.6042744253306704,"11":-0.8402218043928772,"12":-0.8172677460604075,"13":-0.49428958059919675,"14":-0.38316900686626215,"15":-0.5956390068664678,"16":-0.5352937412941491,"17":-0.2946453117575411,"18":-0.7844432079733478,"19":-0.5230604552513322,"20":-0.06726864886167107,"21":-0.35186870847252133,"22":-0.7169092770100424,"23":-0.3281248902993294,"24":-0.560529979782613,"25":-0.42429266902986784,"26":-0.25508705618715455,"27":-0.28217852368958235,"28":-0.27445623407264785,"29":-0.6253462606937611,"30":-0.46057542860080775,"31":-0.381431987319684,"32":-0.5732009313829348,"33":-0.2683457320139743,"34":-0.6074811671224017,"35":-0.24160058055104483,"36":-0.30514549424019477,"37":-0.47036652668315465,"38":-0.38004297987213326,"39":-0.625155862898141}},"22":{"bias":-0.7633550916907776,"weights":{"0":-0.30364952154956226,"1":-0.3846073248999759,"2":-0.2990255651525844,"3":-0.2632343466282371,"4":-0.5271529878412934,"5":-0.3178056203487641,"6":0.1662555644054224,"7":0.025023694086398235,"8":-0.30526017326009947,"9":-0.050135528409597896,"10":-0.12037232959475004,"11":-0.11084110863896553,"12":-0.144537885781703,"13":-0.07339956805226443,"14":-0.13470581495243503,"15":-0.32878477002996775,"16":-0.3659534947494447,"17":-0.32986494560482504,"18":-0.02577268178303943,"19":-0.15753512918354134,"20":-0.15414523532532973,"21":-0.157659952208944,"22":-0.4153103721830479,"23":-0.14189767787486424,"24":-0.09255228782832978,"25":-0.522721501811636,"26":-0.5261633936902944,"27":-0.4126868030010389,"28":-0.26205283701807075,"29":-0.43789446781916436,"30":-0.1297067557706877,"31":-0.13093970317488832,"32":-0.34830782090266627,"33":-0.12244820604500965,"34":0.0028009827855845467,"35":-0.13912551186893266,"36":-0.32603004777319666,"37":-0.20586274470799606,"38":-0.1223036608757343,"39":-0.4482274865550358}},"23":{"bias":-0.6755733677702868,"weights":{"0":-1.3190308405661668,"1":-0.527881409286789,"2":4.489420798682018,"3":-0.9095886322373338,"4":0.47354107834754505,"5":1.3020431230686376,"6":-8.185894262114912,"7":-1.4420390458832975,"8":-0.5306193688371285,"9":-2.46542080518405,"10":-2.8996987488052715,"11":-3.0692096194571756,"12":-1.3543607472254569,"13":-1.3037691635047213,"14":-1.1769325220332771,"15":-1.2090937046691554,"16":-1.4496249782073987,"17":-0.4365473538995147,"18":-1.928253638424722,"19":-1.4307935101402958,"20":-0.9134299940218974,"21":-1.0435735373358181,"22":3.308141709439907,"23":-0.9925226532064602,"24":-1.138869959701289,"25":-0.6285954826304807,"26":-0.4038173194344621,"27":-1.6861508571211055,"28":-0.7669308953612307,"29":-0.8526198197877886,"30":-1.1214738028509985,"31":-1.4254274579212243,"32":-1.3311217320817923,"33":-0.5797631000635916,"34":-4.855685058981132,"35":-1.4300394162064074,"36":-1.3752340957135127,"37":-1.0648259993005957,"38":-1.0648299178510343,"39":0.6066293831138361}},"24":{"bias":-0.568663076759182,"weights":{"0":-0.10154093203944926,"1":-0.3023382977288418,"2":-0.17645447703430434,"3":-0.10892192792738876,"4":0.3564888161631591,"5":-0.49131454190024765,"6":0.7990750167258451,"7":-0.04500104789550619,"8":-0.15687810713670736,"9":-0.5533126437532221,"10":-0.09974881544507816,"11":0.24014893463476925,"12":-0.27209870654466,"13":-0.2960352638373631,"14":-0.10784979329495746,"15":-0.2839608969082587,"16":0.002350751935680042,"17":-0.18667589892046893,"18":0.04309714885503319,"19":-0.15412746025555651,"20":-0.41780685459186906,"21":-0.20195163405222705,"22":-0.21395853609777457,"23":-0.49441545296504225,"24":-0.09324472022777376,"25":-0.11418025758015755,"26":-0.5760569158305316,"27":-0.22534294388739867,"28":-0.20849748117882033,"29":-0.33935034251308743,"30":-0.4936393956530635,"31":-0.3978916526554714,"32":-0.0013224339554807514,"33":-0.342048241551732,"34":-0.04260810535262107,"35":-0.14627505746315267,"36":-0.37046969063753615,"37":-0.42987647431362874,"38":-0.18770016975746093,"39":-0.4917197521404724}},"25":{"bias":-0.9156254984796188,"weights":{"0":-0.348754487848837,"1":-0.2386168846098663,"2":-0.26375889527514174,"3":-0.45250957544118564,"4":0.680121903969985,"5":0.3613582261279144,"6":-1.5664368223500476,"7":-0.6107885364350627,"8":-0.6326500241432901,"9":-0.42651677613648514,"10":-0.4377774162740827,"11":-0.6776638319180844,"12":-0.5955610363474121,"13":-0.4511870105592892,"14":-0.5187730641711489,"15":-0.274385831895575,"16":-0.29180398041930655,"17":-0.22978237477716457,"18":-0.6888065423005917,"19":-0.49457569743893076,"20":0.01834249510071167,"21":-0.17404091803018124,"22":-0.7929878953496933,"23":-0.15172251813075505,"24":-0.33364829588943856,"25":-0.37482483058708416,"26":-0.5619875448127026,"27":-0.4383707882220823,"28":-0.26751968157058775,"29":-0.328696418399835,"30":-0.19467306912574986,"31":-0.4088657173543756,"32":-0.4384120617324966,"33":-0.40485009527697136,"34":-0.1973096548683756,"35":-0.40162786843177883,"36":-0.24853390548992338,"37":-0.3279899405317392,"38":-0.3679068120048539,"39":-0.536199481428772}},"26":{"bias":-0.9645669815254783,"weights":{"0":-0.34498174703658535,"1":-0.49219839560642514,"2":-0.4311170486279702,"3":-0.474828886464436,"4":0.10215745136518507,"5":0.16744175189402152,"6":-0.9476869011267014,"7":-0.40659279349601124,"8":-0.5620578291116085,"9":-0.6375192421418671,"10":-0.21753577657884438,"11":-0.4443016466187463,"12":-0.49595378223990766,"13":-0.26498127392952386,"14":-0.43706767253569245,"15":-0.04510302978315604,"16":-0.19110465660049897,"17":-0.024441158988760935,"18":-0.2782972278770971,"19":-0.10868334135614083,"20":-0.3634431304267114,"21":-0.3119539148097982,"22":-0.6701424562901491,"23":0.007304903151553407,"24":-0.18089373607837353,"25":-0.5330718241947809,"26":-0.4058813025462679,"27":-0.1641699531856174,"28":-0.24668382726787827,"29":-0.2342144984402413,"30":-0.08290645864740795,"31":-0.09276645598243236,"32":-0.5150991462414876,"33":-0.2599786251831012,"34":0.061806203779847455,"35":-0.1287742866417123,"36":-0.34385697909752294,"37":-0.30261181226545264,"38":-0.14312997087347207,"39":-0.4403614577035172}},"27":{"bias":-0.9517487668361482,"weights":{"0":-0.5059440147753704,"1":-0.38097474521734204,"2":-0.38920066770368356,"3":-0.2467689493445062,"4":0.9226688259476298,"5":0.3457763184242303,"6":-1.9708965531107836,"7":-0.3745078340598484,"8":-0.6358001881447032,"9":-0.43011374541768166,"10":-0.6197269716421189,"11":-0.9070327262960353,"12":-0.6389846460982159,"13":-0.7598554158075025,"14":-0.37821446085591276,"15":-0.19905604867488605,"16":-0.6917441491202202,"17":-0.3695004082496828,"18":-0.8808802138503423,"19":-0.21524339913143983,"20":-0.25588259292692933,"21":-0.3505592670803128,"22":-0.5642428390373531,"23":-0.21309883988740097,"24":-0.3420354589563047,"25":-0.47865021197636826,"26":-0.41903040359525534,"27":-0.6134309718063037,"28":-0.1573428934768402,"29":-0.47829674932677047,"30":-0.2669333073324967,"31":-0.4628747706631216,"32":-0.6067073036189605,"33":-0.14121162579084368,"34":-0.5665653291728566,"35":-0.45831550989309877,"36":-0.30617954898985544,"37":-0.3494390102388622,"38":-0.4342186489730438,"39":-0.4898659460866677}},"28":{"bias":-0.8656328692392602,"weights":{"0":-0.3478941616530746,"1":-0.5305292616386437,"2":-0.2984178330584305,"3":-0.600920126467475,"4":-0.9426985143618624,"5":-0.6697990234010142,"6":1.4244085920095935,"7":0.18140757504044508,"8":-0.4263047064407365,"9":0.08867730350607125,"10":-0.19345172773849723,"11":-0.08610673768020495,"12":-0.4172183699983766,"13":-0.5592484154579921,"14":-0.4057518159541843,"15":-0.25437514795764915,"16":-0.4749039030773392,"17":-0.1587120178747821,"18":-0.326973432561324,"19":-0.5331639898881524,"20":0.05465306545499862,"21":-0.2618423741667876,"22":-0.4496094680400957,"23":-0.14163415482270372,"24":-0.4081502714443001,"25":-0.6847824597049781,"26":-0.5054353180064962,"27":-0.265238836789795,"28":-0.2729886066561437,"29":-0.5467290063918376,"30":-0.26959664893248586,"31":-0.12169947289050824,"32":-0.562655605198857,"33":-0.02080455575931491,"34":0.2791149756263984,"35":-0.11055334439207716,"36":-0.23714720479033793,"37":-0.19275861287482673,"38":-0.07135200814288281,"39":-0.624709515935863}},"29":{"bias":1.252850860632009,"weights":{"0":-0.27394102972144313,"1":0.6414324593699369,"2":1.3472005369133049,"3":0.5720208807480088,"4":-4.222350016035126,"5":-6.336097153247179,"6":1.649960951345642,"7":-0.8174712651806106,"8":0.18824696857423415,"9":-3.787653463817975,"10":-0.5851937124522413,"11":2.136993285612916,"12":0.09020495912661185,"13":-0.2617623600970049,"14":-0.3717404524440356,"15":-1.0566370856040102,"16":-0.24085110878646485,"17":-0.6184874252247592,"18":-0.9358259269818626,"19":-0.7189857009613835,"20":-0.5626472997770963,"21":-0.26142104815697625,"22":1.9092563630703734,"23":0.21919610344022403,"24":0.011655141186445657,"25":0.4121193353420577,"26":0.4988198407586457,"27":-0.7002571350681294,"28":-0.045660339217881915,"29":0.09801539551357313,"30":0.3022642885279217,"31":0.34771318022156933,"32":-0.23779029034803353,"33":-0.2820836390916043,"34":4.533629405701097,"35":-0.9017149738962366,"36":-0.30227755294189285,"37":0.004398990973180314,"38":-1.057611494196718,"39":1.6031476402272855}},"30":{"bias":-0.569667465534703,"weights":{"0":-0.3691333188118181,"1":-0.2933982628279003,"2":-0.4281049582274501,"3":-0.3439759868476927,"4":-1.1380906447304837,"5":-0.5345383358695336,"6":0.5272618779521856,"7":0.03640853316206871,"8":-0.45590056350861863,"9":0.320335596109906,"10":-0.07726295969219338,"11":0.17070136129931182,"12":-0.4841639317058631,"13":-0.5837443399948984,"14":-0.47134193912242145,"15":-0.005787887917236552,"16":-0.14290908122851897,"17":-0.3297277790221083,"18":-0.251330676728894,"19":-0.30571836383596335,"20":-0.055871983745212746,"21":-0.14877766408258852,"22":-0.3381682203739715,"23":-0.3145158797625175,"24":-0.34887420523099116,"25":-0.623378243437771,"26":-0.3095416809299199,"27":-0.6298320346306231,"28":-0.1797708758151297,"29":-0.3222684986230388,"30":-0.21981384179021668,"31":-0.34278910360795245,"32":-0.5073314018449782,"33":-0.3242814288480424,"34":0.35959916807995584,"35":-0.41237072801708735,"36":-0.3492138564767002,"37":-0.39960330370684927,"38":-0.18739262478507163,"39":-0.45255903066201203}},"31":{"bias":-0.7761879506327186,"weights":{"0":-0.09336249806698807,"1":-0.10869836017081988,"2":-0.5705670735334197,"3":-0.08502571074586869,"4":-0.3479392659853392,"5":0.025861990550897246,"6":0.08639261521446451,"7":-0.022457790125930056,"8":-0.4173407891357407,"9":-0.17750121168813882,"10":-0.26847554070172264,"11":-0.12147254576915657,"12":-0.24422220034569667,"13":-0.4139218278164638,"14":-0.29123978983627147,"15":-0.22655435926562514,"16":-0.3335851545884079,"17":-0.16153364288254018,"18":-0.027555809850963914,"19":-0.06250221554407624,"20":-0.37306472584832656,"21":-0.30302947012788517,"22":-0.28510490863306326,"23":-0.178674342500277,"24":-0.04734298350875333,"25":-0.43705136777560294,"26":-0.32667229420896166,"27":-0.36978255711144375,"28":-0.2862328248079062,"29":-0.43186176016509364,"30":-0.3372536613913851,"31":-0.3489495951814058,"32":-0.24339360376799246,"33":-0.36647286654342404,"34":0.04369486696701635,"35":-0.34928477810854086,"36":-0.12546252968391453,"37":-0.2000402654421832,"38":-0.14055111375365203,"39":-0.42086814194513117}},"32":{"bias":-0.5328074284417141,"weights":{"0":-0.22696385448909004,"1":-0.14465871085080478,"2":-0.2810400621003149,"3":-0.381832199572589,"4":0.10725496917208707,"5":-0.43719857973279946,"6":0.6295152165081878,"7":-0.15803206255279212,"8":-0.10397912104801058,"9":-0.1927352708696045,"10":-0.3370373142882808,"11":0.20778139434712867,"12":-0.10986404355017791,"13":-0.17166541686078793,"14":-0.09402536008372968,"15":-0.4437729762615946,"16":-0.19857376605529137,"17":-0.2922571174770539,"18":0.07372874722195522,"19":-0.3954399806480725,"20":-0.1259559545015726,"21":-0.08288864610399227,"22":-0.3666118864840226,"23":-0.34852179711204556,"24":-0.20984884891762393,"25":-0.19223096621724114,"26":-0.2733347714502487,"27":-0.14947348484242737,"28":-0.544031921798367,"29":-0.3154666278299212,"30":-0.39503073879041434,"31":-0.18136577921325786,"32":0.01631019473172996,"33":-0.18449080229511397,"34":-0.0683497501776548,"35":-0.23955424184952082,"36":-0.2844974681821393,"37":-0.47267928651398883,"38":-0.278928845201074,"39":-0.30695507297165525}},"33":{"bias":-0.9574991413111693,"weights":{"0":-0.38632355668879176,"1":-0.4635976977315046,"2":-0.344615214283971,"3":-0.1621515713473562,"4":0.23092890329250737,"5":0.12626325029416152,"6":-1.329117898355669,"7":-0.3490247488819324,"8":-0.2007793569925621,"9":-0.6701099346692487,"10":-0.036125835149213505,"11":-0.7374899534368091,"12":-0.38606073036237576,"13":-0.44486373419141734,"14":-0.5550459716609424,"15":-0.30521989777536845,"16":-0.2747264085032034,"17":-0.09078271315130368,"18":-0.6388376360285223,"19":-0.4084259825989034,"20":-0.29946169880120727,"21":-0.38990973018883407,"22":-0.2954481192108754,"23":-0.33758316950547884,"24":-0.3934666176205993,"25":-0.4646043729098921,"26":-0.48074511419128224,"27":-0.31950862102974414,"28":-0.0547927944280867,"29":-0.3592188534007267,"30":-0.3528103888281238,"31":-0.1416921748843625,"32":-0.5098090392673091,"33":-0.33936006301128474,"34":-0.3581333069114495,"35":-0.2552006803960493,"36":-0.4246122207933316,"37":-0.04663158570437332,"38":-0.32826614423838263,"39":-0.630132478097621}},"34":{"bias":-0.5167650398905289,"weights":{"0":-1.061377319059884,"1":-0.6587960065257304,"2":2.2192366717165672,"3":-0.4985389248462688,"4":6.085395663491074,"5":2.064797319185442,"6":-5.652303659580057,"7":-2.0693211467025403,"8":-0.9330294139122564,"9":2.3238062353666797,"10":-1.7088116838635674,"11":-1.3701704331391797,"12":-1.77264410795869,"13":-1.7124770598983883,"14":-1.3871224325382159,"15":-1.7076093150039307,"16":-1.2477576691346335,"17":-0.39566552048933185,"18":-1.9266481001846965,"19":-1.2385396205161847,"20":-0.5862347356341101,"21":-0.6574718815946972,"22":0.1918283867040562,"23":-0.7313934870444081,"24":-0.8332963003747035,"25":-1.0000790819684857,"26":-0.5067397433393328,"27":-1.4637106076862818,"28":0.16567060686771293,"29":-1.1303092247898723,"30":-0.6280265501086335,"31":-0.7017487542124532,"32":-1.841431932346633,"33":-0.525573978588716,"34":-0.011607274114565516,"35":-0.8626446029983441,"36":-1.182536513436736,"37":-0.5788218136244175,"38":-1.3700193755208216,"39":-0.18720626989583608}},"35":{"bias":-0.6350758176290612,"weights":{"0":-0.42476319366733556,"1":-0.2743650547802839,"2":-0.34955733710470566,"3":-0.22500044312171924,"4":-0.9782379150481646,"5":-1.3026344710040785,"6":0.6907529556520858,"7":-0.23097593754653392,"8":-0.17577929396154873,"9":0.2611181827765955,"10":-0.3369547267663024,"11":0.6364251720903331,"12":-0.3033862082311661,"13":-0.4537933850721794,"14":-0.4631574727744745,"15":-0.02124893589400107,"16":-0.11814839861990559,"17":-0.07312626326111232,"18":-0.1654073074182762,"19":-0.5805178860274933,"20":-0.3063363417451081,"21":-0.13478083511299369,"22":-0.19411955596577615,"23":-0.24893713630161654,"24":-0.28580509021153,"25":-0.2702305545557547,"26":-0.38217493482689263,"27":-0.47329017995241,"28":-0.43858839464324806,"29":-0.4176200531662101,"30":-0.2685870239162656,"31":-0.3302426039741436,"32":-0.5030303605045323,"33":-0.07698175921965476,"34":0.17557640985846512,"35":-0.4345786731473922,"36":-0.4803537327705475,"37":-0.20845860585341502,"38":-0.4716229760749315,"39":-0.37511339656263226}},"36":{"bias":-0.6962770634234612,"weights":{"0":-0.1365732368676064,"1":-0.3750201950839801,"2":-0.39809519262429316,"3":-0.39271378286281283,"4":-0.04382693099687837,"5":-0.3995809535232535,"6":0.4982643247680126,"7":0.047460230040114036,"8":-0.1332120879117545,"9":-0.3520558797962779,"10":-0.22060347678211234,"11":-0.01834946735560357,"12":-0.1554068190430754,"13":-0.23135760791774362,"14":-0.27361418987312786,"15":-0.24606062343359983,"16":-0.24757781707658083,"17":-0.1842017912656585,"18":-0.11054817561547474,"19":-0.07766227904529666,"20":-0.38218763673668305,"21":-0.34331232701787284,"22":-0.3551691836735539,"23":-0.43405391882664096,"24":-0.2657250461748446,"25":-0.25272293722953,"26":-0.4111440885487109,"27":-0.1142659605023861,"28":-0.32690818899961793,"29":-0.11870064895894093,"30":-0.17944888908960044,"31":-0.32587244910015906,"32":-0.04507262095719806,"33":-0.11844549306981235,"34":-0.10534180568326491,"35":-0.11494502640505777,"36":-0.22600239108132517,"37":-0.4028692512851502,"38":-0.055716161561206574,"39":-0.2815612523248737}},"37":{"bias":-0.5217818364643936,"weights":{"0":-0.29884505952639784,"1":-0.35410880563383085,"2":-0.2456183353520107,"3":-0.11084203236851616,"4":-0.4182597805513314,"5":-0.20473925034973073,"6":0.187670732608903,"7":-0.19874707919994633,"8":-0.4439838520523754,"9":-0.21349806450982678,"10":-0.14842170051561368,"11":0.12473095543726975,"12":-0.06711605457738505,"13":-0.12645663220918607,"14":-0.2021546407852236,"15":-0.1728710822143932,"16":-0.3126820448199659,"17":-0.10756232059522214,"18":-0.30005178493413076,"19":-0.22092499125683973,"20":-0.34719306148723983,"21":-0.40121976127106773,"22":-0.5274807695991746,"23":-0.17675492648558086,"24":-0.4086486605014312,"25":-0.36057831820875136,"26":-0.5020499433845531,"27":-0.15713572461499503,"28":-0.39751170309197864,"29":-0.3781990006992925,"30":-0.08267815148249065,"31":-0.32438776752572823,"32":-0.062041839328762775,"33":-0.2100662004870818,"34":0.1747683670290766,"35":-0.4309230741625476,"36":-0.29901321024862304,"37":-0.24009720377128516,"38":-0.25040641016730436,"39":-0.5090482143703627}},"38":{"bias":-0.7607845765308989,"weights":{"0":-0.31510593510263424,"1":-0.2464306506646519,"2":-0.377525581670798,"3":-0.3648303787434374,"4":0.32873047948705225,"5":0.07414300266246357,"6":-1.042554709906801,"7":-0.26443088287846317,"8":-0.44290949393403334,"9":-0.5478180493208613,"10":-0.39308227766053944,"11":-0.6374464757318883,"12":-0.4107075227842083,"13":-0.2080392494797136,"14":-0.48368328462448307,"15":-0.35774394304177887,"16":-0.3812664908712702,"17":-0.30432838405378154,"18":-0.5384570054141015,"19":-0.1210301940459829,"20":-0.42429159361103275,"21":-0.2305894595596471,"22":-0.3486121905682255,"23":-0.021018107882354007,"24":-0.278461781536889,"25":-0.20818482024797028,"26":-0.5503358651829127,"27":-0.4781930802953582,"28":-0.050398736253810354,"29":-0.5276194764381138,"30":-0.3811353277300801,"31":-0.41512009287478385,"32":-0.5624413191240197,"33":-0.32401014553848934,"34":-0.2860489607339392,"35":-0.2642685219984667,"36":-0.4171026272414172,"37":-0.2543151081610419,"38":-0.14817184587883228,"39":-0.6449686192485542}},"39":{"bias":1.0172223541284493,"weights":{"0":-0.13335214342586113,"1":-0.1532224939797836,"2":2.040254270568245,"3":-0.019191011057325656,"4":-2.4071979133385617,"5":0.6005439062133228,"6":-7.654513342493322,"7":-0.864619525624109,"8":-0.530053817589974,"9":-1.7232067721929394,"10":-0.2940255580471914,"11":-1.947249264481661,"12":-0.7375990254078221,"13":-0.6312263799386916,"14":-0.5263438609646536,"15":-0.02200374713791254,"16":-0.36738171241342066,"17":0.021085213920233693,"18":-0.9045542116722414,"19":-0.025188319938593377,"20":-0.18845808601514963,"21":0.015981098179138474,"22":0.8517716710177988,"23":-0.5068043519786293,"24":-0.2985367803887064,"25":-0.22912811177123768,"26":0.24372977573821603,"27":-0.01676095673659768,"28":-0.037209946930165785,"29":-0.15467870067283007,"30":-0.06068788909635411,"31":-0.2316784044650617,"32":-0.809646968056111,"33":-0.42279392793802495,"34":-3.493683514750105,"35":0.1685625209993051,"36":-0.08669844122454916,"37":0.15051629529587182,"38":-0.1316072135907128,"39":0.1045043932798509}}},{"price":{"bias":-1.0773129586506913,"weights":{"0":0.24439114669815734,"1":0.5761314814658478,"2":0.24610355617046978,"3":0.6347693722073764,"4":0.4551337620527338,"5":0.14424821927411083,"6":-0.7310363838323222,"7":-2.1768788203587146,"8":0.8424259672628861,"9":-0.6700634771085463,"10":0.8696408376549338,"11":0.7111004504271949,"12":0.9457941991459544,"13":-1.119867534375047,"14":0.3824883383365265,"15":-2.2042095269139605,"16":0.4946058520416679,"17":0.5887486516551539,"18":0.5708420674374624,"19":0.5671641185392349,"20":0.7941366955435558,"21":0.783807433614008,"22":0.6309607575635438,"23":6.363009739432324,"24":1.1259846431585485,"25":0.5373148061360713,"26":0.5423479621681714,"27":0.6384297019047124,"28":0.36056265471085636,"29":-3.1922145566921953,"30":0.4491450870514188,"31":0.6993596281496343,"32":0.9559997991641507,"33":0.4018848837033544,"34":2.3074448669342944,"35":0.1251958042503178,"36":0.8487490720382976,"37":0.738415062433083,"38":0.3474268471059663,"39":2.4695813686043953}}}],"outputLookup":true,"inputLookup":true}